digraph Tree {
node [shape=box, style="filled, rounded", color="black", fontname=helvetica] ;
graph [ranksep=equally, splines=polyline] ;
edge [fontname=helvetica] ;
0 [label="tenure <= 16.5\ngini = 0.383\nsamples = 3112\nvalue = [3658, 1272]\nclass = Yes", fillcolor="#eead7e"] ;
1 [label="Contract <= 0.5\ngini = 0.497\nsamples = 1093\nvalue = [934, 794]\nclass = Yes", fillcolor="#fbece1"] ;
0 -> 1 [labeldistance=2.5, labelangle=45, headlabel="True"] ;
2 [label="PaymentMethod <= 2.5\ngini = 0.5\nsamples = 976\nvalue = [748, 787]\nclass = No", fillcolor="#f5fafe"] ;
1 -> 2 ;
3 [label="MonthlyCharges <= 69.45\ngini = 0.488\nsamples = 686\nvalue = [460, 629]\nclass = No", fillcolor="#cae5f8"] ;
2 -> 3 ;
4 [label="gini = 0.487\nsamples = 277\nvalue = [256, 185]\nclass = Yes", fillcolor="#f8dcc8"] ;
3 -> 4 ;
5 [label="gini = 0.431\nsamples = 409\nvalue = [204, 444]\nclass = No", fillcolor="#94caf1"] ;
3 -> 5 ;
6 [label="tenure <= 1.5\ngini = 0.458\nsamples = 290\nvalue = [288, 158]\nclass = Yes", fillcolor="#f3c6a6"] ;
2 -> 6 ;
7 [label="gini = 0.498\nsamples = 95\nvalue = [69, 78]\nclass = No", fillcolor="#e8f4fc"] ;
6 -> 7 ;
8 [label="gini = 0.392\nsamples = 195\nvalue = [219, 80]\nclass = Yes", fillcolor="#eeaf81"] ;
6 -> 8 ;
9 [label="TotalCharges <= 281.45\ngini = 0.07\nsamples = 117\nvalue = [186, 7]\nclass = Yes", fillcolor="#e68640"] ;
1 -> 9 ;
10 [label="gini = 0.018\nsamples = 67\nvalue = [107, 1]\nclass = Yes", fillcolor="#e5823b"] ;
9 -> 10 ;
11 [label="gini = 0.131\nsamples = 50\nvalue = [79, 6]\nclass = Yes", fillcolor="#e78b48"] ;
9 -> 11 ;
12 [label="MonthlyCharges <= 77.45\ngini = 0.254\nsamples = 2019\nvalue = [2724, 478]\nclass = Yes", fillcolor="#ea975c"] ;
0 -> 12 [labeldistance=2.5, labelangle=-45, headlabel="False"] ;
13 [label="tenure <= 56.5\ngini = 0.107\nsamples = 1021\nvalue = [1516, 91]\nclass = Yes", fillcolor="#e78945"] ;
12 -> 13 ;
14 [label="TechSupport <= 0.5\ngini = 0.144\nsamples = 687\nvalue = [988, 84]\nclass = Yes", fillcolor="#e78c4a"] ;
13 -> 14 ;
15 [label="gini = 0.169\nsamples = 526\nvalue = [752, 77]\nclass = Yes", fillcolor="#e88e4d"] ;
14 -> 15 ;
16 [label="gini = 0.056\nsamples = 161\nvalue = [236, 7]\nclass = Yes", fillcolor="#e6853f"] ;
14 -> 16 ;
17 [label="PaperlessBilling <= 0.5\ngini = 0.026\nsamples = 334\nvalue = [528, 7]\nclass = Yes", fillcolor="#e5833c"] ;
13 -> 17 ;
18 [label="gini = 0.007\nsamples = 177\nvalue = [282, 1]\nclass = Yes", fillcolor="#e5813a"] ;
17 -> 18 ;
19 [label="gini = 0.046\nsamples = 157\nvalue = [246, 6]\nclass = Yes", fillcolor="#e6843e"] ;
17 -> 19 ;
20 [label="Contract <= 0.5\ngini = 0.368\nsamples = 998\nvalue = [1208, 387]\nclass = Yes", fillcolor="#eda978"] ;
12 -> 20 ;
21 [label="tenure_group <= 2.5\ngini = 0.478\nsamples = 441\nvalue = [422, 276]\nclass = Yes", fillcolor="#f6d3ba"] ;
20 -> 21 ;
22 [label="gini = 0.494\nsamples = 330\nvalue = [294, 238]\nclass = Yes", fillcolor="#fae7d9"] ;
21 -> 22 ;
23 [label="gini = 0.353\nsamples = 111\nvalue = [128, 38]\nclass = Yes", fillcolor="#eda674"] ;
21 -> 23 ;
24 [label="MonthlyCharges <= 93.675\ngini = 0.217\nsamples = 557\nvalue = [786, 111]\nclass = Yes", fillcolor="#e99355"] ;
20 -> 24 ;
25 [label="gini = 0.1\nsamples = 227\nvalue = [358, 20]\nclass = Yes", fillcolor="#e68844"] ;
24 -> 25 ;
26 [label="gini = 0.289\nsamples = 330\nvalue = [428, 91]\nclass = Yes", fillcolor="#eb9c63"] ;
24 -> 26 ;
{rank=same ; 0} ;
{rank=same ; 1; 12} ;
{rank=same ; 2; 9; 13; 20} ;
{rank=same ; 3; 6; 14; 17; 21; 24} ;
{rank=same ; 4; 5; 7; 8; 10; 11; 15; 16; 18; 19; 22; 23; 25; 26} ;
}